{
    "structure": {
        "nInputs": 10,
        "nOutputs": 3,
        "nLayers": 3,
        "nNeurons": 4
    },
    "layers": [
        {
            "weights": [
                [
                    0.005910812350128358,
                    7.207419141214965,
                    -43.234607054564506,
                    229.70851693426886,
                    -294.0133562336165,
                    -298.1067663946258,
                    2753.8487471700823,
                    -1487.6813497276617,
                    1464.2288317032453,
                    -23622.044337846586
                ],
                [
                    0.1267565543374033,
                    0.6102930115084515,
                    -20.687596445360303,
                    147.675496155343,
                    -307.50807923180474,
                    -180.80020569922698,
                    -3075.3305971834516,
                    -1587.3968300502347,
                    -8755.335746657021,
                    -11884.332977907523
                ],
                [
                    0.1251823363150263,
                    -3.513459872223361,
                    -1.7992966065563403,
                    246.13744629823418,
                    721.3393650996669,
                    873.9832897274989,
                    346.44988059286345,
                    -3655.4145129206445,
                    -10019.079766918767,
                    23496.270660806626
                ],
                [
                    0.008034292773939355,
                    -6.146150200467675,
                    15.0040052978063,
                    141.66175454325656,
                    176.5676578953757,
                    1622.4534762270293,
                    -3869.0312609523708,
                    468.40648925219466,
                    -1200.5877257498976,
                    -21882.521042506225
                ]
            ],
            "biases": [
                0.07066408456968748,
                0.17631641924032837,
                0.046470509052142006,
                -0.1199512761313884
            ],
            "activation": "relu"
        },
        {
            "weights": [
                [
                    0.1699407605157044,
                    0.0047479407607546875,
                    343235901.9499619,
                    0.12651510385108894
                ],
                [
                    -0.17603898210752172,
                    0.1598133595596385,
                    5777510698.272322,
                    0.14354847077740052
                ],
                [
                    -0.15419187048993238,
                    0.151182080567265,
                    -9729987582.820192,
                    -0.20922369131824364
                ],
                [
                    0.1776134871435351,
                    0.1806417480888342,
                    11869080832.23649,
                    -0.014045140320604887
                ]
            ],
            "biases": [
                -0.11297580569314086,
                -0.24645408569841687,
                0.07286044778747391,
                0.10995469175434652
            ],
            "activation": "relu"
        },
        {
            "weights": [
                [
                    63846113105336.48,
                    -8.393191001489338e+17,
                    -0.1423909164185132,
                    1.3971391952040454e+19
                ],
                [
                    58040381604222.41,
                    1.7841735897795139e+18,
                    -0.17473758478941126,
                    -1.783644834631224e+18
                ],
                [
                    75099479758825.6,
                    -2.973800202682257e+17,
                    0.04475103104202405,
                    -4.768148509269361e+19
                ]
            ],
            "biases": [
                0.08672994357646946,
                0.20954430981691125,
                0.16341266477836053
            ],
            "activation": "softmax"
        }
    ]
}