{
    "structure": {
        "nInputs": 10,
        "nOutputs": 3,
        "nLayers": 3,
        "nNeurons": 4
    },
    "layers": [
        {
            "weights": [
                [
                    0.06848084366072715,
                    -7.36682515955615,
                    -167.31515052525702,
                    -990.1514024375724,
                    2447.4237437521283,
                    9628.762106734694,
                    6272.79619161647,
                    30080.573241294638,
                    11592.054544687899,
                    217536.21189388417
                ],
                [
                    0.15792677706076608,
                    -15.912367994555261,
                    130.27385881616902,
                    -955.216741774409,
                    1794.183175233938,
                    -7566.305682583503,
                    21363.81851777091,
                    5434.405060488949,
                    -53220.65659046085,
                    -38656.389401170774
                ],
                [
                    -0.23584016442726852,
                    -12.022935152013954,
                    62.19259915582825,
                    301.4441197040642,
                    901.4461834472957,
                    -2713.570014178784,
                    29248.125867832445,
                    63024.04952407803,
                    49302.308887202445,
                    75229.63813390814
                ],
                [
                    0.09422336528547004,
                    -3.554514432668679,
                    -133.00732391933113,
                    453.6081207174793,
                    198.08064434160852,
                    -4426.6775269606815,
                    -833.2279343994235,
                    51050.94942379216,
                    115334.26008165262,
                    -71102.40164546488
                ]
            ],
            "biases": [
                0.03576491536488047,
                -0.08906530446202893,
                0.0471500150998484,
                -0.08104438724643337
            ],
            "activation": "relu"
        },
        {
            "weights": [
                [
                    -5.2285376807660904e+16,
                    0.19513717600239616,
                    -1.0205564797456168e+17,
                    456371496912901.7
                ],
                [
                    -2.0068014331840298e+17,
                    0.1663220738266989,
                    1.0738801267222408e+17,
                    -965558198022156.4
                ],
                [
                    1.816242696229683e+17,
                    -0.22071598259740283,
                    -6.129978031855053e+16,
                    -1295609891771960.5
                ],
                [
                    -2.3957381274416016e+16,
                    0.14816213514364712,
                    -1.0075224102490368e+17,
                    -1659626984125510.8
                ]
            ],
            "biases": [
                -0.0477240800892359,
                -0.15074347774537233,
                -0.20462347719043905,
                0.04016619299342533
            ],
            "activation": "relu"
        },
        {
            "weights": [
                [
                    -0.1006519335905387,
                    0.08599743897817969,
                    -1.0804861940405592e+39,
                    0.2210565552532489
                ],
                [
                    -0.06744491587758572,
                    -0.19725236021488524,
                    4.6424873583850766e+38,
                    0.2135772765339337
                ],
                [
                    -0.02981142264210801,
                    0.22729524684536861,
                    -3.746344690456804e+35,
                    -0.037385687575462234
                ]
            ],
            "biases": [
                0.060106726007688904,
                0.24754825261766206,
                0.22447183746888266
            ],
            "activation": "softmax"
        }
    ]
}